<?xml version="1.0"?>
<opencv_storage>
<stage0>
  <maxWeakCount>9</maxWeakCount>
  <stageThreshold>-1.1801294088363647e+00</stageThreshold>
  <weakClassifiers>
    <_>
      <internalNodes>
        0 -1 1351 1140851328 -1114986352 1163144717 1594477337 692355770
        -1174596934 224736159 454754395</internalNodes>
      <leafValues>
        -3.8425269722938538e-01 7.2570252418518066e-01</leafValues></_>
    <_>
      <internalNodes>
        0 -1 820710 128 447096040 87564972 -1074393919 856692412
        -1358881548 820025256 -1191178240</internalNodes>
      <leafValues>
        -4.4401270151138306e-01 5.6942898035049438e-01</leafValues></_>
    <_>
      <internalNodes>
        0 -1 531714 -1853871984 -546074240 268440061 -1618378479
        252227817 -1113587048 135042271 -1996161024</internalNodes>
      <leafValues>
        -5.0635761022567749e-01 5.0606065988540649e-01</leafValues></_>
    <_>
      <internalNodes>
        0 -1 879615 76030032 1383084036 -1749768877 1572932953 889210544
        -1621359266 -1240405555 -1207958776</internalNodes>
      <leafValues>
        -4.6175932884216309e-01 4.9153468012809753e-01</leafValues></_>
    <_>
      <internalNodes>
        0 -1 743565 285249748 956958464 327289213 289521729 403184056
        -1137947768 144787624 -1685585768</internalNodes>
      <leafValues>
        -4.3712276220321655e-01 4.9545079469680786e-01</leafValues></_>
    <_>
      <internalNodes>
        0 -1 536875 1359272512 -580935104 877204953 1498780996
        1393524954 -1162182624 268502267 1998815386</internalNodes>
      <leafValues>
        -4.4342592358589172e-01 4.6405053138732910e-01</leafValues></_>
    <_>
      <internalNodes>
        0 -1 1007829 -771485616 -1861988336 1350698000 1511672048
        403308544 -133682920 -2011148088 -669855287</internalNodes>
      <leafValues>
        -4.8545810580253601e-01 4.6308642625808716e-01</leafValues></_>
    <_>
      <internalNodes>
        0 -1 565396 471897300 1360911732 993079287 991131984 2136216062
        -25199452 1841039611 -1146486752</internalNodes>
      <leafValues>
        -4.6351855993270874e-01 4.8791405558586121e-01</leafValues></_>
    <_>
      <internalNodes>
        0 -1 877769 -720371427 -46918151 -285256005 -537834947
        -1497879554 -15317024 -306303078 -1146617816</internalNodes>
      <leafValues>
        -4.2657244205474854e-01 5.1138252019882202e-01</leafValues></_></weakClassifiers></stage0>
</opencv_storage>
